GIS
1
0.0
3
3
1
2
1
18 0 1 2
18
give
delivery
proud
dad
pregnancy
father
blessed
birth
mom
girl
my
boy
our
announce
mother
baby
welcome
child
5.429936555032608
20.43776813068973
28.698236411050623
-0.08479757513520858
0.021469215431384914
4.214149044419854
4.261005897899029
-5.203423562562486
-2.6061302756879465
0.9519665624728959
6.407454516482963
3.895879906683802
3.6822304780440565
3.6822304780440565
1.3796453850500106
0.9519665624728959
6.407454516482963
3.895879906683802
6.836054841246456
10.422537306900852
5.967989314688413
4.008850394115642
-13.433423013635213
-21.909303954389838
1.2227444081264014
5.231412158467649
1.7470890313592549
1.5236486140035888
2.243814054898203
0.20744645098923667
5.765082200768377
49.826840657271234
0.9032897731919437
1.284794434450608
1.830029074285895
0.16613749958103333
5.765082200768375
49.826840657271234
0.903289773191942
4.093868722133674
65.49439732437216
29.080405064982504
-3.455475333759083
3.3027750094843715
0.6978188572844151
1.392754622531947
-47.03580882816846
0.17393153335092082
3.868473002493051
47.65560362695685
2.828744107371654
7.436078032089225
1.5600622967968776
4.775477111525831
